digraph Tree {
node [shape=box, style="filled, rounded", color="black", fontname=helvetica] ;
edge [fontname=helvetica] ;
0 [label=<exam &le; 1.635<br/>gini = 0.359<br/>samples = 149<br/>value = [114, 35]<br/>class = False>, fillcolor="#eda876"] ;
1 [label=<mean_mark &le; 3.515<br/>gini = 0.209<br/>samples = 118<br/>value = [104, 14]<br/>class = False>, fillcolor="#e89254"] ;
0 -> 1 [labeldistance=2.5, labelangle=45, headlabel="True"] ;
2 [label=<exam &le; 0.9<br/>gini = 0.444<br/>samples = 6<br/>value = [2, 4]<br/>class = True>, fillcolor="#9ccef2"] ;
1 -> 2 ;
3 [label=<gini = 0.0<br/>samples = 2<br/>value = [2, 0]<br/>class = False>, fillcolor="#e58139"] ;
2 -> 3 ;
4 [label=<gini = 0.0<br/>samples = 4<br/>value = [0, 4]<br/>class = True>, fillcolor="#399de5"] ;
2 -> 4 ;
5 [label=<exam &le; 0.9<br/>gini = 0.163<br/>samples = 112<br/>value = [102, 10]<br/>class = False>, fillcolor="#e88d4c"] ;
1 -> 5 ;
6 [label=<exam &le; 0.1<br/>gini = 0.112<br/>samples = 84<br/>value = [79, 5]<br/>class = False>, fillcolor="#e78946"] ;
5 -> 6 ;
7 [label=<mean_mark &le; 4.055<br/>gini = 0.238<br/>samples = 29<br/>value = [25, 4]<br/>class = False>, fillcolor="#e99559"] ;
6 -> 7 ;
8 [label=<gini = 0.0<br/>samples = 3<br/>value = [0, 3]<br/>class = True>, fillcolor="#399de5"] ;
7 -> 8 ;
9 [label=<pretest &le; 0.5<br/>gini = 0.074<br/>samples = 26<br/>value = [25, 1]<br/>class = False>, fillcolor="#e68641"] ;
7 -> 9 ;
10 [label=<gini = 0.0<br/>samples = 18<br/>value = [18, 0]<br/>class = False>, fillcolor="#e58139"] ;
9 -> 10 ;
11 [label=<mean_mark &le; 4.445<br/>gini = 0.219<br/>samples = 8<br/>value = [7, 1]<br/>class = False>, fillcolor="#e99355"] ;
9 -> 11 ;
12 [label=<mean_mark &le; 4.335<br/>gini = 0.375<br/>samples = 4<br/>value = [3, 1]<br/>class = False>, fillcolor="#eeab7b"] ;
11 -> 12 ;
13 [label=<gini = 0.0<br/>samples = 3<br/>value = [3, 0]<br/>class = False>, fillcolor="#e58139"] ;
12 -> 13 ;
14 [label=<gini = 0.0<br/>samples = 1<br/>value = [0, 1]<br/>class = True>, fillcolor="#399de5"] ;
12 -> 14 ;
15 [label=<gini = 0.0<br/>samples = 4<br/>value = [4, 0]<br/>class = False>, fillcolor="#e58139"] ;
11 -> 15 ;
16 [label=<mean_mark &le; 4.49<br/>gini = 0.036<br/>samples = 55<br/>value = [54, 1]<br/>class = False>, fillcolor="#e5833d"] ;
6 -> 16 ;
17 [label=<gini = 0.0<br/>samples = 48<br/>value = [48, 0]<br/>class = False>, fillcolor="#e58139"] ;
16 -> 17 ;
18 [label=<mean_mark &le; 4.515<br/>gini = 0.245<br/>samples = 7<br/>value = [6, 1]<br/>class = False>, fillcolor="#e9965a"] ;
16 -> 18 ;
19 [label=<gini = 0.0<br/>samples = 1<br/>value = [0, 1]<br/>class = True>, fillcolor="#399de5"] ;
18 -> 19 ;
20 [label=<gini = 0.0<br/>samples = 6<br/>value = [6, 0]<br/>class = False>, fillcolor="#e58139"] ;
18 -> 20 ;
21 [label=<mean_mark &le; 4.11<br/>gini = 0.293<br/>samples = 28<br/>value = [23, 5]<br/>class = False>, fillcolor="#eb9c64"] ;
5 -> 21 ;
22 [label=<exam &le; 1.06<br/>gini = 0.204<br/>samples = 26<br/>value = [23, 3]<br/>class = False>, fillcolor="#e89153"] ;
21 -> 22 ;
23 [label=<mean_mark &le; 3.635<br/>gini = 0.444<br/>samples = 9<br/>value = [6, 3]<br/>class = False>, fillcolor="#f2c09c"] ;
22 -> 23 ;
24 [label=<pretest &le; 2.5<br/>gini = 0.444<br/>samples = 3<br/>value = [1, 2]<br/>class = True>, fillcolor="#9ccef2"] ;
23 -> 24 ;
25 [label=<gini = 0.0<br/>samples = 2<br/>value = [0, 2]<br/>class = True>, fillcolor="#399de5"] ;
24 -> 25 ;
26 [label=<gini = 0.0<br/>samples = 1<br/>value = [1, 0]<br/>class = False>, fillcolor="#e58139"] ;
24 -> 26 ;
27 [label=<pretest &le; 0.5<br/>gini = 0.278<br/>samples = 6<br/>value = [5, 1]<br/>class = False>, fillcolor="#ea9a61"] ;
23 -> 27 ;
28 [label=<mean_mark &le; 3.765<br/>gini = 0.444<br/>samples = 3<br/>value = [2, 1]<br/>class = False>, fillcolor="#f2c09c"] ;
27 -> 28 ;
29 [label=<gini = 0.0<br/>samples = 1<br/>value = [1, 0]<br/>class = False>, fillcolor="#e58139"] ;
28 -> 29 ;
30 [label=<mean_mark &le; 3.91<br/>gini = 0.5<br/>samples = 2<br/>value = [1, 1]<br/>class = False>, fillcolor="#ffffff"] ;
28 -> 30 ;
31 [label=<gini = 0.0<br/>samples = 1<br/>value = [0, 1]<br/>class = True>, fillcolor="#399de5"] ;
30 -> 31 ;
32 [label=<gini = 0.0<br/>samples = 1<br/>value = [1, 0]<br/>class = False>, fillcolor="#e58139"] ;
30 -> 32 ;
33 [label=<gini = 0.0<br/>samples = 3<br/>value = [3, 0]<br/>class = False>, fillcolor="#e58139"] ;
27 -> 33 ;
34 [label=<gini = 0.0<br/>samples = 17<br/>value = [17, 0]<br/>class = False>, fillcolor="#e58139"] ;
22 -> 34 ;
35 [label=<gini = 0.0<br/>samples = 2<br/>value = [0, 2]<br/>class = True>, fillcolor="#399de5"] ;
21 -> 35 ;
36 [label=<exam &le; 2.415<br/>gini = 0.437<br/>samples = 31<br/>value = [10, 21]<br/>class = True>, fillcolor="#97ccf1"] ;
0 -> 36 [labeldistance=2.5, labelangle=-45, headlabel="False"] ;
37 [label=<extra_terms &le; 0.5<br/>gini = 0.5<br/>samples = 18<br/>value = [9, 9]<br/>class = False>, fillcolor="#ffffff"] ;
36 -> 37 ;
38 [label=<exam &le; 2.1<br/>gini = 0.48<br/>samples = 15<br/>value = [6, 9]<br/>class = True>, fillcolor="#bddef6"] ;
37 -> 38 ;
39 [label=<exam &le; 1.735<br/>gini = 0.426<br/>samples = 13<br/>value = [4, 9]<br/>class = True>, fillcolor="#91c9f1"] ;
38 -> 39 ;
40 [label=<gini = 0.0<br/>samples = 3<br/>value = [0, 3]<br/>class = True>, fillcolor="#399de5"] ;
39 -> 40 ;
41 [label=<exam &le; 1.9<br/>gini = 0.48<br/>samples = 10<br/>value = [4, 6]<br/>class = True>, fillcolor="#bddef6"] ;
39 -> 41 ;
42 [label=<mean_mark &le; 3.35<br/>gini = 0.375<br/>samples = 4<br/>value = [3, 1]<br/>class = False>, fillcolor="#eeab7b"] ;
41 -> 42 ;
43 [label=<gini = 0.0<br/>samples = 1<br/>value = [0, 1]<br/>class = True>, fillcolor="#399de5"] ;
42 -> 43 ;
44 [label=<gini = 0.0<br/>samples = 3<br/>value = [3, 0]<br/>class = False>, fillcolor="#e58139"] ;
42 -> 44 ;
45 [label=<mean_mark &le; 3.74<br/>gini = 0.278<br/>samples = 6<br/>value = [1, 5]<br/>class = True>, fillcolor="#61b1ea"] ;
41 -> 45 ;
46 [label=<gini = 0.0<br/>samples = 4<br/>value = [0, 4]<br/>class = True>, fillcolor="#399de5"] ;
45 -> 46 ;
47 [label=<mean_mark &le; 3.93<br/>gini = 0.5<br/>samples = 2<br/>value = [1, 1]<br/>class = False>, fillcolor="#ffffff"] ;
45 -> 47 ;
48 [label=<gini = 0.0<br/>samples = 1<br/>value = [1, 0]<br/>class = False>, fillcolor="#e58139"] ;
47 -> 48 ;
49 [label=<gini = 0.0<br/>samples = 1<br/>value = [0, 1]<br/>class = True>, fillcolor="#399de5"] ;
47 -> 49 ;
50 [label=<gini = 0.0<br/>samples = 2<br/>value = [2, 0]<br/>class = False>, fillcolor="#e58139"] ;
38 -> 50 ;
51 [label=<gini = 0.0<br/>samples = 3<br/>value = [3, 0]<br/>class = False>, fillcolor="#e58139"] ;
37 -> 51 ;
52 [label=<mean_mark &le; 3.875<br/>gini = 0.142<br/>samples = 13<br/>value = [1, 12]<br/>class = True>, fillcolor="#49a5e7"] ;
36 -> 52 ;
53 [label=<gini = 0.0<br/>samples = 12<br/>value = [0, 12]<br/>class = True>, fillcolor="#399de5"] ;
52 -> 53 ;
54 [label=<gini = 0.0<br/>samples = 1<br/>value = [1, 0]<br/>class = False>, fillcolor="#e58139"] ;
52 -> 54 ;
}
