digraph Tree {
node [shape=box, style="filled, rounded", color="black", fontname=helvetica] ;
edge [fontname=helvetica] ;
0 [label=<exam &le; 1.635<br/>gini = 0.359<br/>samples = 149<br/>value = [114, 35]<br/>class = False>, fillcolor="#eda876"] ;
1 [label=<mean_mark &le; 3.515<br/>gini = 0.209<br/>samples = 118<br/>value = [104, 14]<br/>class = False>, fillcolor="#e89254"] ;
0 -> 1 [labeldistance=2.5, labelangle=45, headlabel="True"] ;
2 [label=<exam &le; 0.9<br/>gini = 0.444<br/>samples = 6<br/>value = [2, 4]<br/>class = True>, fillcolor="#9ccef2"] ;
1 -> 2 ;
3 [label=<gini = 0.0<br/>samples = 2<br/>value = [2, 0]<br/>class = False>, fillcolor="#e58139"] ;
2 -> 3 ;
4 [label=<gini = 0.0<br/>samples = 4<br/>value = [0, 4]<br/>class = True>, fillcolor="#399de5"] ;
2 -> 4 ;
5 [label=<exam &le; 0.9<br/>gini = 0.163<br/>samples = 112<br/>value = [102, 10]<br/>class = False>, fillcolor="#e88d4c"] ;
1 -> 5 ;
6 [label=<gini = 0.112<br/>samples = 84<br/>value = [79, 5]<br/>class = False>, fillcolor="#e78946"] ;
5 -> 6 ;
7 [label=<gini = 0.293<br/>samples = 28<br/>value = [23, 5]<br/>class = False>, fillcolor="#eb9c64"] ;
5 -> 7 ;
8 [label=<exam &le; 2.415<br/>gini = 0.437<br/>samples = 31<br/>value = [10, 21]<br/>class = True>, fillcolor="#97ccf1"] ;
0 -> 8 [labeldistance=2.5, labelangle=-45, headlabel="False"] ;
9 [label=<extra_terms &le; 0.5<br/>gini = 0.5<br/>samples = 18<br/>value = [9, 9]<br/>class = False>, fillcolor="#ffffff"] ;
8 -> 9 ;
10 [label=<gini = 0.48<br/>samples = 15<br/>value = [6, 9]<br/>class = True>, fillcolor="#bddef6"] ;
9 -> 10 ;
11 [label=<gini = 0.0<br/>samples = 3<br/>value = [3, 0]<br/>class = False>, fillcolor="#e58139"] ;
9 -> 11 ;
12 [label=<mean_mark &le; 3.875<br/>gini = 0.142<br/>samples = 13<br/>value = [1, 12]<br/>class = True>, fillcolor="#49a5e7"] ;
8 -> 12 ;
13 [label=<gini = 0.0<br/>samples = 12<br/>value = [0, 12]<br/>class = True>, fillcolor="#399de5"] ;
12 -> 13 ;
14 [label=<gini = 0.0<br/>samples = 1<br/>value = [1, 0]<br/>class = False>, fillcolor="#e58139"] ;
12 -> 14 ;
}
