digraph Tree {
node [shape=box, style="filled, rounded", color="black", fontname=helvetica] ;
edge [fontname=helvetica] ;
0 [label=<mean_mark &le; 3.755<br/>gini = 0.341<br/>samples = 156<br/>value = [122, 34]<br/>class = False>, fillcolor="#eca470"] ;
1 [label=<exam &le; 2.415<br/>gini = 0.48<br/>samples = 45<br/>value = [18, 27]<br/>class = True>, fillcolor="#bddef6"] ;
0 -> 1 [labeldistance=2.5, labelangle=45, headlabel="True"] ;
2 [label=<pretest &le; 2.5<br/>gini = 0.498<br/>samples = 34<br/>value = [18, 16]<br/>class = False>, fillcolor="#fcf1e9"] ;
1 -> 2 ;
3 [label=<gini = 0.455<br/>samples = 20<br/>value = [7, 13]<br/>class = True>, fillcolor="#a4d2f3"] ;
2 -> 3 ;
4 [label=<gini = 0.337<br/>samples = 14<br/>value = [11, 3]<br/>class = False>, fillcolor="#eca36f"] ;
2 -> 4 ;
5 [label=<gini = 0.0<br/>samples = 11<br/>value = [0, 11]<br/>class = True>, fillcolor="#399de5"] ;
1 -> 5 ;
6 [label=<exam &le; 0.9<br/>gini = 0.118<br/>samples = 111<br/>value = [104, 7]<br/>class = False>, fillcolor="#e78946"] ;
0 -> 6 [labeldistance=2.5, labelangle=-45, headlabel="False"] ;
7 [label=<exam &le; 0.1<br/>gini = 0.043<br/>samples = 90<br/>value = [88, 2]<br/>class = False>, fillcolor="#e6843d"] ;
6 -> 7 ;
8 [label=<gini = 0.117<br/>samples = 32<br/>value = [30, 2]<br/>class = False>, fillcolor="#e78946"] ;
7 -> 8 ;
9 [label=<gini = 0.0<br/>samples = 58<br/>value = [58, 0]<br/>class = False>, fillcolor="#e58139"] ;
7 -> 9 ;
10 [label=<pretest &le; 0.5<br/>gini = 0.363<br/>samples = 21<br/>value = [16, 5]<br/>class = False>, fillcolor="#eda877"] ;
6 -> 10 ;
11 [label=<gini = 0.494<br/>samples = 9<br/>value = [5, 4]<br/>class = False>, fillcolor="#fae6d7"] ;
10 -> 11 ;
12 [label=<gini = 0.153<br/>samples = 12<br/>value = [11, 1]<br/>class = False>, fillcolor="#e78c4b"] ;
10 -> 12 ;
}
